svm_type c_svc
kernel_type precomputed
nr_class 2
total_sv 5
rho 0.466602
W 2.23024
label 1 -1
nr_sv 1 4
SV
2.486982233512977 0:3 
-0.562853081579462 0:1 
-0.9621027729713 0:2 
-0.4700633958640834 0:4 
-0.4919629830981319 0:5 
