svm_type c_svc
kernel_type precomputed
nr_class 2
total_sv 5
rho 0.621887
W 2.48876
label 1 -1
nr_sv 1 4
SV
3.096970783692457 0:1 
-1.027795453587358 0:2 
-0.562853081579462 0:3 
-0.9197274923403036 0:4 
-0.5865947561853341 0:5 
