svm_type c_svc
kernel_type precomputed
nr_class 2
total_sv 5
rho 0.690322
W 2.571
label 1 -1
nr_sv 1 4
SV
3.305017461368599 0:4 
-0.919727492340303 0:1 
-0.9271056022358204 0:2 
-0.4700633958640825 0:3 
-0.988120970928393 0:5 
