svm_type c_svc
kernel_type precomputed
nr_class 2
total_sv 5
rho 0.648593
W 2.12087
label 1 -1
nr_sv 1 4
SV
2.249035589182117 0:1 
-0.7264065337139821 0:2 
-0.5327486441933614 0:3 
-0.613852110393891 0:4 
-0.3760283008808827 0:5 
