svm_type c_svc
kernel_type precomputed
nr_class 2
total_sv 5
rho 0.473869
W 1.88593
label 1 -1
nr_sv 1 4
SV
1.778357519540757 0:5 
-0.3760283008808818 0:1 
-0.3883286007629815 0:2 
-0.3567061521524574 0:3 
-0.6572944657444365 0:4 
