svm_type c_svc
kernel_type precomputed
nr_class 2
total_sv 5
rho 0.585229
W 2.04447
label 1 -1
nr_sv 1 4
SV
2.089935989930602 0:2 
-0.7264065337139816 0:1 
-0.6125623249705369 0:3 
-0.3626385304831021 0:4 
-0.3883286007629823 0:5 
