svm_type c_svc
kernel_type precomputed
nr_class 2
total_sv 5
rho 0.492079
W 2.27046
label 1 -1
nr_sv 1 4
SV
2.577495956335581 0:5 
-0.5865947561853332 0:1 
-0.5108172461237253 0:2 
-0.4919629830981312 0:3 
-0.9881209709283924 0:4 
