svm_type c_svc
kernel_type precomputed
nr_class 2
total_sv 5
rho 0.729111
W 2.61833
label 1 -1
nr_sv 1 4
SV
3.427821074918202 0:2 
-1.027795453587359 0:1 
-0.9621027729712994 0:3 
-0.9271056022358181 0:4 
-0.5108172461237254 0:5 
