svm_type c_svc
kernel_type precomputed
nr_class 2
total_sv 5
rho 0.613126
W 2.07705
label 1 -1
nr_sv 1 4
SV
2.157059161242369 0:3 
-0.5327486441933621 0:1 
-0.6125623249705359 0:2 
-0.6550420399260135 0:4 
-0.3567061521524563 0:5 
