svm_type c_svc
kernel_type precomputed
nr_class 2
total_sv 5
rho 0.679183
W 2.13955
label 1 -1
nr_sv 1 4
SV
2.288827146547442 0:4 
-0.6138521103938915 0:1 
-0.362638530483102 0:2 
-0.6550420399260127 0:3 
-0.6572944657444363 0:5 
